Language model created by QuickLM on Tue Sep  3 20:46:55 EDT 2019
Copyright (c) 1996-2010 Carnegie Mellon University and Alexander I. Rudnicky

The model is in standard ARPA format, designed by Doug Paul while he was at MITRE.

The code that was used to produce this language model is available in Open Source.
Please visit http://www.speech.cs.cmu.edu/tools/ for more information

The (fixed) discount mass is 0.5. The backoffs are computed using the ratio method.
This model based on a corpus of 37 sentences and 49 words

\data\
ngram 1=49
ngram 2=87
ngram 3=71

\1-grams:
-0.9031 </s> -0.3010
-0.9031 <s> -0.2329
-2.4713 AFTERNOON -0.2430
-2.4713 AHEAD -0.2430
-2.4713 ALRIGHT -0.2430
-2.4713 APPLE -0.2430
-2.4713 BACK -0.2430
-2.4713 BACKWARD -0.2430
-2.4713 BOOK -0.2430
-2.1703 BRING -0.2951
-2.4713 CONTINUE -0.2981
-2.1703 DOWN -0.2430
-2.4713 FORWARD -0.2430
-2.4713 FULL -0.2951
-1.7723 GO -0.2936
-1.9942 GOOD -0.2397
-2.4713 HALF -0.2951
-1.9942 HELLO -0.2363
-2.1703 HELP -0.2951
-2.4713 IS -0.2996
-2.1703 KOBUKI -0.2430
-2.1703 LEFT -0.2430
-1.8692 ME -0.2380
-2.4713 MORNING -0.2430
-2.4713 MOVE -0.2996
-2.4713 NAME -0.2430
-2.4713 NO -0.2430
-2.4713 OFF -0.2430
-2.4713 PAUSE -0.2981
-2.1703 PEOPLEBOT -0.2430
-2.4713 PERFECT -0.2430
-2.4713 PLEASE -0.2981
-2.4713 QUARTER -0.2951
-2.1703 RIGHT -0.2430
-2.4713 ROOM -0.2430
-2.1703 ROTATE -0.2951
-2.4713 SHUT -0.2981
-2.4713 SLOW -0.2981
-2.1703 SPEECH -0.2430
-1.8692 SPEED -0.2414
-2.4713 STOP -0.2430
-2.4713 STRAIGHT -0.2430
-1.9942 THE -0.2966
-2.4713 TO -0.2966
-1.9942 TURN -0.2936
-2.4713 UP -0.2430
-2.4713 WHAT -0.2996
-2.4713 YES -0.2430
-2.4713 YOUR -0.2996

\2-grams:
-1.8692 <s> ALRIGHT 0.0000
-1.5682 <s> BRING 0.0000
-1.8692 <s> CONTINUE 0.0000
-1.8692 <s> FULL 0.0000
-1.1703 <s> GO 0.0000
-1.3921 <s> GOOD 0.0000
-1.8692 <s> HALF 0.0000
-1.3921 <s> HELLO 0.0000
-1.8692 <s> HELP 0.0000
-1.8692 <s> KOBUKI 0.0000
-1.8692 <s> MOVE 0.0000
-1.8692 <s> NO 0.0000
-1.8692 <s> PAUSE 0.0000
-1.8692 <s> PEOPLEBOT 0.0000
-1.8692 <s> PERFECT 0.0000
-1.8692 <s> PLEASE 0.0000
-1.8692 <s> QUARTER 0.0000
-1.5682 <s> ROTATE 0.0000
-1.8692 <s> SHUT 0.0000
-1.8692 <s> SLOW 0.0000
-1.8692 <s> SPEED -0.2430
-1.8692 <s> STOP 0.0000
-1.3921 <s> TURN 0.0000
-1.8692 <s> WHAT 0.0000
-1.8692 <s> YES 0.0000
-0.3010 AFTERNOON </s> -0.3010
-0.3010 AHEAD </s> -0.3010
-0.3010 ALRIGHT </s> -0.3010
-0.3010 APPLE </s> -0.3010
-0.3010 BACK </s> -0.3010
-0.3010 BACKWARD </s> -0.3010
-0.3010 BOOK </s> -0.3010
-0.3010 BRING ME -0.1761
-0.3010 CONTINUE SPEECH 0.0000
-0.3010 DOWN </s> -0.3010
-0.3010 FORWARD </s> -0.3010
-0.3010 FULL SPEED -0.0969
-1.0000 GO AHEAD 0.0000
-1.0000 GO BACK 0.0000
-1.0000 GO FORWARD 0.0000
-1.0000 GO STRAIGHT 0.0000
-1.0000 GO TO 0.0000
-0.7782 GOOD </s> -0.3010
-0.7782 GOOD AFTERNOON 0.0000
-0.7782 GOOD MORNING 0.0000
-0.3010 HALF SPEED -0.0969
-0.7782 HELLO </s> -0.3010
-0.7782 HELLO KOBUKI 0.0000
-0.7782 HELLO PEOPLEBOT 0.0000
-0.3010 HELP ME -0.1761
-0.3010 IS YOUR 0.0000
-0.3010 KOBUKI </s> -0.3010
-0.3010 LEFT </s> -0.3010
-0.6021 ME </s> -0.3010
-0.6021 ME THE -0.1249
-0.3010 MORNING </s> -0.3010
-0.3010 MOVE BACKWARD 0.0000
-0.3010 NAME </s> -0.3010
-0.3010 NO </s> -0.3010
-0.3010 OFF </s> -0.3010
-0.3010 PAUSE SPEECH 0.0000
-0.3010 PEOPLEBOT </s> -0.3010
-0.3010 PERFECT </s> -0.3010
-0.3010 PLEASE HELP 0.0000
-0.3010 QUARTER SPEED -0.0969
-0.3010 RIGHT </s> -0.3010
-0.3010 ROOM </s> -0.3010
-0.6021 ROTATE LEFT 0.0000
-0.6021 ROTATE RIGHT 0.0000
-0.3010 SHUT DOWN 0.0000
-0.3010 SLOW DOWN 0.0000
-0.3010 SPEECH </s> -0.3010
-0.4260 SPEED </s> -0.3010
-0.9031 SPEED UP 0.0000
-0.3010 STOP </s> -0.3010
-0.3010 STRAIGHT </s> -0.3010
-0.7782 THE APPLE 0.0000
-0.7782 THE BOOK 0.0000
-0.7782 THE ROOM 0.0000
-0.3010 TO THE -0.2218
-0.7782 TURN LEFT 0.0000
-0.7782 TURN OFF 0.0000
-0.7782 TURN RIGHT 0.0000
-0.3010 UP </s> -0.3010
-0.3010 WHAT IS 0.0000
-0.3010 YES </s> -0.3010
-0.3010 YOUR NAME 0.0000

\3-grams:
-0.3010 <s> ALRIGHT </s>
-0.3010 <s> BRING ME
-0.3010 <s> CONTINUE SPEECH
-0.3010 <s> FULL SPEED
-1.0000 <s> GO AHEAD
-1.0000 <s> GO BACK
-1.0000 <s> GO FORWARD
-1.0000 <s> GO STRAIGHT
-1.0000 <s> GO TO
-0.7782 <s> GOOD </s>
-0.7782 <s> GOOD AFTERNOON
-0.7782 <s> GOOD MORNING
-0.3010 <s> HALF SPEED
-0.7782 <s> HELLO </s>
-0.7782 <s> HELLO KOBUKI
-0.7782 <s> HELLO PEOPLEBOT
-0.3010 <s> HELP ME
-0.3010 <s> KOBUKI </s>
-0.3010 <s> MOVE BACKWARD
-0.3010 <s> NO </s>
-0.3010 <s> PAUSE SPEECH
-0.3010 <s> PEOPLEBOT </s>
-0.3010 <s> PERFECT </s>
-0.3010 <s> PLEASE HELP
-0.3010 <s> QUARTER SPEED
-0.6021 <s> ROTATE LEFT
-0.6021 <s> ROTATE RIGHT
-0.3010 <s> SHUT DOWN
-0.3010 <s> SLOW DOWN
-0.3010 <s> SPEED UP
-0.3010 <s> STOP </s>
-0.7782 <s> TURN LEFT
-0.7782 <s> TURN OFF
-0.7782 <s> TURN RIGHT
-0.3010 <s> WHAT IS
-0.3010 <s> YES </s>
-0.3010 BRING ME THE
-0.3010 CONTINUE SPEECH </s>
-0.3010 FULL SPEED </s>
-0.3010 GO AHEAD </s>
-0.3010 GO BACK </s>
-0.3010 GO FORWARD </s>
-0.3010 GO STRAIGHT </s>
-0.3010 GO TO THE
-0.3010 GOOD AFTERNOON </s>
-0.3010 GOOD MORNING </s>
-0.3010 HALF SPEED </s>
-0.3010 HELLO KOBUKI </s>
-0.3010 HELLO PEOPLEBOT </s>
-0.3010 HELP ME </s>
-0.3010 IS YOUR NAME
-0.6021 ME THE APPLE
-0.6021 ME THE BOOK
-0.3010 MOVE BACKWARD </s>
-0.3010 PAUSE SPEECH </s>
-0.3010 PLEASE HELP ME
-0.3010 QUARTER SPEED </s>
-0.3010 ROTATE LEFT </s>
-0.3010 ROTATE RIGHT </s>
-0.3010 SHUT DOWN </s>
-0.3010 SLOW DOWN </s>
-0.3010 SPEED UP </s>
-0.3010 THE APPLE </s>
-0.3010 THE BOOK </s>
-0.3010 THE ROOM </s>
-0.3010 TO THE ROOM
-0.3010 TURN LEFT </s>
-0.3010 TURN OFF </s>
-0.3010 TURN RIGHT </s>
-0.3010 WHAT IS YOUR
-0.3010 YOUR NAME </s>

\end\
